-0.0398,0.0094,-0.0366,0.0188,0.0118,-0.0262,-0.0332,-0.0356,0.014,-0.0328,-0.0452,-0.0474,-0.029,0.0126,0.019,0.0064,-0.03,0.0166,-0.0298,0,-0.039,-0.0316,0.0136,-0.0334,-0.0324,0.0042,-0.0338,-0.0292,-0.0258,0.0028,0.0244,-0.0474,0.0126,-0.031,0.0134,-0.0322,0.0144,0.0118,-0.0496,-0.0484,0.0018,0.0166,-0.0318,0.0242,0.0058,0.0012,0.0234,0.0174,-0.0364,0.009,0.0078,-0.0288,0.0192,-0.051,-0.0436,-0.043,-0.0384,0.0004,0.0166,-0.03,-0.0372,-0.0448,0.0004,0.0212,0.0164,0.0138,0.0216,0.003,-0.0424,-0.026,-0.0374,0.0254,-0.0308,0.0016,-0.0472,0.0138,-0.0458,-0.0344,-0.0508,-0.0266,0.0064,0.0184,0.0016,0.0046,-0.027,-0.0438,-0.0268,0.0114,-0.0376,-0.0348,-0.0342,0.0218,0.004,0.0154,-0.0332,-0.0326,-0.0482,-0.0508,0.023,-0.0414,-0.035,0.0096,0.0166,0.0228,0.0208,-0.0342,0.0136,0.0166,-0.048,0.0214,0.0194,0.0206,0.0002,0.0052,0.0164,0.0218,0.0186,-0.0278,0.0038,0.0052,0.019,0.0208,0.0004,-0.0426,-0.0478,0.025,-0.048,0.0212,0.0174,0.0206,0.025,-0.0374,-0.0362,0.013,0.0208,0.0096,0.0012,-0.0342,0.022,-0.045,-0.044,0.0142,0.017,-0.0508,-0.0352,0.0108,0.025,0.024,-0.0258,-0.034,0.0202,0.0012,-0.0326,0.0006,-0.0504,-0.0502,0.018,-0.0398,0.003,0.0096,-0.0444,0.007,-0.0448,0.0066,0.025,-0.0346,-0.0318,-0.0476,-0.05,-0.0388,0.018,-0.0346,0.024,-0.0462,-0.0288,-0.039,0.0042,-0.0326,-0.0502,-0.0404,0.021,-0.0352,-0.0308,-0.039,0.0144,0.0034,-0.0296,-0.0334,-0.0454,0.0238,-0.036,0.007,-0.0374,0.0088,0.004,-0.0442,0.0046,0.0146,-0.0344,-0.0384,0.0078,-0.03,0.0218,0.022,-0.0498,-0.0398,0.0024,0.0076,-0.0494,-0.0496,0.0198,0.0198,-0.0372,-0.0468,-0.048,-0.0338,0.0114,-0.0418,-0.0478,0.0058,-0.0374,0.0174,0.0036,0.0048,-0.0448,
